digraph Tree {
node [shape=box, fontname="helvetica"] ;
edge [fontname="helvetica"] ;
0 [label="B4 not_placed <= 0.411\nsquared_error = 0.1\nsamples = 80000\nvalue = -0.036"] ;
1 [label="C4 yours <= 0.0\nsquared_error = 0.663\nsamples = 1373\nvalue = 1.52"] ;
0 -> 1 [labeldistance=2.5, labelangle=45, headlabel="True"] ;
2 [label="E3 yours <= 1.0\nsquared_error = 0.005\nsamples = 195\nvalue = -0.108"] ;
1 -> 2 ;
3 [label="squared_error = 0.004\nsamples = 194\nvalue = -0.11"] ;
2 -> 3 ;
4 [label="squared_error = -0.0\nsamples = 1\nvalue = 0.189"] ;
2 -> 4 ;
5 [label="B2 flipped <= 0.0\nsquared_error = 0.261\nsamples = 1178\nvalue = 1.789"] ;
1 -> 5 ;
6 [label="squared_error = 0.173\nsamples = 841\nvalue = 1.967"] ;
5 -> 6 ;
7 [label="squared_error = 0.205\nsamples = 337\nvalue = 1.345"] ;
5 -> 7 ;
8 [label="A4 not_placed <= 0.0\nsquared_error = 0.047\nsamples = 78627\nvalue = -0.063"] ;
0 -> 8 [labeldistance=2.5, labelangle=-45, headlabel="False"] ;
9 [label="B4 not_flipped <= 0.996\nsquared_error = 0.939\nsamples = 1278\nvalue = 1.256"] ;
8 -> 9 ;
10 [label="squared_error = 0.419\nsamples = 949\nvalue = 1.717"] ;
9 -> 10 ;
11 [label="squared_error = 0.057\nsamples = 329\nvalue = -0.074"] ;
9 -> 11 ;
12 [label="C4 empty <= 0.996\nsquared_error = 0.003\nsamples = 77349\nvalue = -0.085"] ;
8 -> 12 ;
13 [label="squared_error = 0.002\nsamples = 60846\nvalue = -0.103"] ;
12 -> 13 ;
14 [label="squared_error = 0.0\nsamples = 16503\nvalue = -0.017"] ;
12 -> 14 ;
}